2.405412194131860470e+00
-2.468897018303076063e+00
-4.170699426626986450e-01
-1.518071437788849343e+00
8.746443318006209555e-01
-2.367521473890313199e+00
-3.984677248838633945e-01
-1.061221823098983830e+00
2.874110608293275471e-01
-2.146219373516791151e+00
-2.402767328774243760e-01
-7.491381391933639167e-01
3.440931841626196364e-01
-6.174622555145435898e-01
-1.819759835321315133e+00
-1.631958403812723279e+00
2.419483890212622779e+00
-2.560960951287750920e+00
-2.627403808916410011e+00
-1.113115459355882575e-01
1.286605136785896386e+00
-1.433663541344271319e+00
-2.709782491250366743e+00
-1.072120045084225426e+00
8.214952996013759057e-01
-2.934425392808391209e+00
-9.854397870236148993e-01
-1.737984481084843269e+00
6.758791303825499863e-01
-2.564451922819249940e+00
-2.555564802127089141e+00
-9.767592939878387837e-01
4.033392156795444272e+00
-2.788351000329628349e+00
-4.144604481653678008e+00
-6.125411436713670277e-01
2.264974434619334787e+00
-3.189894946492844330e+00
-3.288826132762391552e+00
5.856908487818712761e-01
1.293481282629201923e+00
-3.949046856094414970e+00
-2.520900080591509163e+00
1.457538478982204344e+00
2.481569529312825040e+00
-3.907553970246571584e+00
-1.656624794620124907e+00
-3.758477187648733286e-01
5.366418296983249681e-01
-3.249745045994236303e+00
-2.688308244445419160e+00
1.170867667182332317e-01
-1.841703204845369424e+00
1.060362584474751513e+00
-1.408494041299036104e+00
1.746726250604722086e+00
-2.399264300226600088e-01
5.529563801176138327e-01
-3.852122904948721782e+00
4.851288956838611277e+00
-9.515217794041445076e-01
3.088531291025390146e+00
-5.091975697248823929e-01
9.835560289777283138e-01
-4.877936049218350445e-01
2.193032554668995271e+00
-2.683247591818632927e+00
2.692122622134512255e+00
1.032158453409736332e+00
3.019086328642308636e+00
1.974361473720621374e-01
1.547266002859028822e+00
7.901001592474844459e-01
1.333624567099855218e+00
-3.027004278187299668e+00
1.612833635230540352e+00
-8.787856539980667403e-01
3.580656106075553069e+00
3.272310997828385415e-01
1.541350478816789549e+00
-1.638979161578157262e+00
4.094905062791692529e+00
-3.519833432846278587e+00
2.948237084484451653e+00
-1.798012720482406179e-01
3.042337787958358519e-01
-7.786732328965555450e-01
3.374294042479951017e+00
7.293320881498682740e-01
1.790171839151391442e+00
-1.470928005210769385e+00
3.402173417468755900e+00
2.052623387294385093e+00
-1.321147325103452230e+00
-9.578310397307495672e-01
-1.906443015943448671e+00
-2.463728508144291673e-01
-1.216169743388834990e+00
-6.542645297774339896e-01
1.753307211377471142e-01
3.419368954867906263e-01
-1.967338583441288202e-01
3.744011967819290909e+00
1.562167271823595049e+00
-1.102664825810635740e+00
3.691192671467742881e-01
1.701999781928396960e+00
1.898203757232224120e+00
-1.328315375600030102e+00
2.445800992156715647e+00
3.759017954117065408e+00
1.714203366313104271e-01
-7.043408311015187939e-01
7.758535090418058333e-01
1.319273395403704585e+00
1.551075466273244885e+00
1.760254462587916291e-01
2.048927434128724023e+00
3.093642692690913520e+00
2.016779814630088818e+00
-1.454929748825585456e+00
7.022189164245385973e-01
-4.052693781946316576e-01
2.971022849005822142e+00
-3.372922004566565324e+00
-1.642397375989482211e-01
4.979788104573357188e-01
-1.014769323179111948e+00
-1.583666388344653342e+00
2.097149873084525329e-01
1.875158512422260726e+00
-3.604983345240345693e-01
-1.196340259958315277e+00
